<?xml version="1.0"?>
<opencv_storage>
<cascade>
  <stageType>BOOST</stageType>
  <featureType>HAAR</featureType>
  <height>20</height>
  <width>20</width>
  <stageParams>
    <boostType>GAB</boostType>
    <minHitRate>9.9500000476837158e-01</minHitRate>
    <maxFalseAlarm>5.0000000000000000e-01</maxFalseAlarm>
    <weightTrimRate>9.4999999999999996e-01</weightTrimRate>
    <maxDepth>1</maxDepth>
    <maxWeakCount>100</maxWeakCount></stageParams>
  <featureParams>
    <maxCatCount>0</maxCatCount>
    <featSize>1</featSize>
    <mode>BASIC</mode></featureParams>
  <stageNum>8</stageNum>
  <stages>
    <!-- stage 0 -->
    <_>
      <maxWeakCount>3</maxWeakCount>
      <stageThreshold>-8.7520754337310791e-01</stageThreshold>
      <weakClassifiers>
        <_>
          <internalNodes>
            0 -1 12 7.4268281459808350e-02</internalNodes>
          <leafValues>
            -8.2532751560211182e-01 9.2825114727020264e-01</leafValues></_>
        <_>
          <internalNodes>
            0 -1 6 8.6857177317142487e-02</internalNodes>
          <leafValues>
            -6.9917315244674683e-01 8.5268765687942505e-01</leafValues></_>
        <_>
          <internalNodes>
            0 -1 27 1.0588851291686296e-03</internalNodes>
          <leafValues>
            -9.7551512718200684e-01 6.4929312467575073e-01</leafValues></_></weakClassifiers></_>
    <!-- stage 1 -->
    <_>
      <maxWeakCount>3</maxWeakCount>
      <stageThreshold>-9.1725701093673706e-01</stageThreshold>
      <weakClassifiers>
        <_>
          <internalNodes>
            0 -1 5 1.2895664572715759e-01</internalNodes>
          <leafValues>
            -7.9752063751220703e-01 9.6535795927047729e-01</leafValues></_>
        <_>
          <internalNodes>
            0 -1 10 6.1237707734107971e-02</internalNodes>
          <leafValues>
            -7.5881284475326538e-01 8.9233267307281494e-01</leafValues></_>
        <_>
          <internalNodes>
            0 -1 28 -2.3960138205438852e-03</internalNodes>
          <leafValues>
            6.3907653093338013e-01 -9.1663962602615356e-01</leafValues></_></weakClassifiers></_>
    <!-- stage 2 -->
    <_>
      <maxWeakCount>3</maxWeakCount>
      <stageThreshold>-7.6192539930343628e-01</stageThreshold>
      <weakClassifiers>
        <_>
          <internalNodes>
            0 -1 11 3.8668248802423477e-02</internalNodes>
          <leafValues>
            -8.0555558204650879e-01 8.6928105354309082e-01</leafValues></_>
        <_>
          <internalNodes>
            0 -1 9 -3.9255791902542114e-01</internalNodes>
          <leafValues>
            8.8967633247375488e-01 -6.0169333219528198e-01</leafValues></_>
        <_>
          <internalNodes>
            0 -1 14 -2.8319715056568384e-03</internalNodes>
          <leafValues>
            6.4532345533370972e-01 -9.1250950098037720e-01</leafValues></_></weakClassifiers></_>
    <!-- stage 3 -->
    <_>
      <maxWeakCount>3</maxWeakCount>
      <stageThreshold>-6.1947810649871826e-01</stageThreshold>
      <weakClassifiers>
        <_>
          <internalNodes>
            0 -1 8 -3.6064732074737549e-01</internalNodes>
          <leafValues>
            9.1058826446533203e-01 -6.4800000190734863e-01</leafValues></_>
        <_>
          <internalNodes>
            0 -1 22 3.4260316751897335e-03</internalNodes>
          <leafValues>
            -8.2671344280242920e-01 7.9275941848754883e-01</leafValues></_>
        <_>
          <internalNodes>
            0 -1 17 -1.2987270951271057e-02</internalNodes>
          <leafValues>
            8.5523527860641479e-01 -6.1700338125228882e-01</leafValues></_></weakClassifiers></_>
    <!-- stage 4 -->
    <_>
      <maxWeakCount>4</maxWeakCount>
      <stageThreshold>-1.7751985788345337e-01</stageThreshold>
      <weakClassifiers>
        <_>
          <internalNodes>
            0 -1 1 1.1065970174968243e-02</internalNodes>
          <leafValues>
            -6.3755458593368530e-01 8.3183854818344116e-01</leafValues></_>
        <_>
          <internalNodes>
            0 -1 23 1.1813828721642494e-02</internalNodes>
          <leafValues>
            -7.9074341058731079e-01 6.7458939552307129e-01</leafValues></_>
        <_>
          <internalNodes>
            0 -1 4 1.8337975442409515e-01</internalNodes>
          <leafValues>
            -6.6732490062713623e-01 7.3944532871246338e-01</leafValues></_>
        <_>
          <internalNodes>
            0 -1 19 -1.8758766818791628e-03</internalNodes>
          <leafValues>
            5.1133275032043457e-01 -7.5801068544387817e-01</leafValues></_></weakClassifiers></_>
    <!-- stage 5 -->
    <_>
      <maxWeakCount>4</maxWeakCount>
      <stageThreshold>-1.4680629968643188e+00</stageThreshold>
      <weakClassifiers>
        <_>
          <internalNodes>
            0 -1 16 4.7168958932161331e-02</internalNodes>
          <leafValues>
            -7.0883053541183472e-01 8.0236303806304932e-01</leafValues></_>
        <_>
          <internalNodes>
            0 -1 0 3.6621965467929840e-02</internalNodes>
          <leafValues>
            -7.4707388877868652e-01 7.1039640903472900e-01</leafValues></_>
        <_>
          <internalNodes>
            0 -1 26 5.5384603329002857e-03</internalNodes>
          <leafValues>
            -7.7432078123092651e-01 5.3207379579544067e-01</leafValues></_>
        <_>
          <internalNodes>
            0 -1 20 2.0319484174251556e-03</internalNodes>
          <leafValues>
            -6.9530814886093140e-01 6.0484778881072998e-01</leafValues></_></weakClassifiers></_>
    <!-- stage 6 -->
    <_>
      <maxWeakCount>5</maxWeakCount>
      <stageThreshold>-8.1142145395278931e-01</stageThreshold>
      <weakClassifiers>
        <_>
          <internalNodes>
            0 -1 7 -4.2636489868164062e-01</internalNodes>
          <leafValues>
            8.7019228935241699e-01 -5.2895754575729370e-01</leafValues></_>
        <_>
          <internalNodes>
            0 -1 15 3.3667609095573425e-02</internalNodes>
          <leafValues>
            -6.4702403545379639e-01 7.0879900455474854e-01</leafValues></_>
        <_>
          <internalNodes>
            0 -1 24 -1.1958513408899307e-02</internalNodes>
          <leafValues>
            6.0351884365081787e-01 -7.2408628463745117e-01</leafValues></_>
        <_>
          <internalNodes>
            0 -1 2 1.3955158181488514e-02</internalNodes>
          <leafValues>
            -6.4245188236236572e-01 6.2504357099533081e-01</leafValues></_>
        <_>
          <internalNodes>
            0 -1 21 2.0854794420301914e-03</internalNodes>
          <leafValues>
            -9.7678059339523315e-01 4.0349307656288147e-01</leafValues></_></weakClassifiers></_>
    <!-- stage 7 -->
    <_>
      <maxWeakCount>5</maxWeakCount>
      <stageThreshold>-9.1915202140808105e-01</stageThreshold>
      <weakClassifiers>
        <_>
          <internalNodes>
            0 -1 13 7.3662362992763519e-02</internalNodes>
          <leafValues>
            -6.7810028791427612e-01 7.2811532020568848e-01</leafValues></_>
        <_>
          <internalNodes>
            0 -1 18 -1.0813416913151741e-02</internalNodes>
          <leafValues>
            6.8938088417053223e-01 -6.8389296531677246e-01</leafValues></_>
        <_>
          <internalNodes>
            0 -1 3 1.1444162577390671e-02</internalNodes>
          <leafValues>
            -8.1476950645446777e-01 4.7851479053497314e-01</leafValues></_>
        <_>
          <internalNodes>
            0 -1 29 -9.1524897143244743e-03</internalNodes>
          <leafValues>
            7.5651603937149048e-01 -5.3652858734130859e-01</leafValues></_>
        <_>
          <internalNodes>
            0 -1 25 6.3695767894387245e-03</internalNodes>
          <leafValues>
            -7.8217583894729614e-01 5.0085496902465820e-01</leafValues></_></weakClassifiers></_></stages>
  <features>
    <_>
      <rects>
        <_>
          0 2 12 5 -1.</_>
        <_>
          4 2 4 5 3.</_></rects>
      <tilted>0</tilted></_>
    <_>
      <rects>
        <_>
          0 3 2 14 -1.</_>
        <_>
          1 3 1 14 2.</_></rects>
      <tilted>0</tilted></_>
    <_>
      <rects>
        <_>
          0 5 2 13 -1.</_>
        <_>
          1 5 1 13 2.</_></rects>
      <tilted>0</tilted></_>
    <_>
      <rects>
        <_>
          0 14 6 4 -1.</_>
        <_>
          3 14 3 4 2.</_></rects>
      <tilted>0</tilted></_>
    <_>
      <rects>
        <_>
          1 0 17 9 -1.</_>
        <_>
          1 3 17 3 3.</_></rects>
      <tilted>0</tilted></_>
    <_>
      <rects>
        <_>
          1 0 18 9 -1.</_>
        <_>
          1 3 18 3 3.</_></rects>
      <tilted>0</tilted></_>
    <_>
      <rects>
        <_>
          2 0 16 9 -1.</_>
        <_>
          2 3 16 3 3.</_></rects>
      <tilted>0</tilted></_>
    <_>
      <rects>
        <_>
          3 3 15 15 -1.</_>
        <_>
          3 8 15 5 3.</_></rects>
      <tilted>0</tilted></_>
    <_>
      <rects>
        <_>
          3 3 16 15 -1.</_>
        <_>
          3 8 16 5 3.</_></rects>
      <tilted>0</tilted></_>
    <_>
      <rects>
        <_>
          3 3 17 15 -1.</_>
        <_>
          3 8 17 5 3.</_></rects>
      <tilted>0</tilted></_>
    <_>
      <rects>
        <_>
          3 11 7 9 -1.</_>
        <_>
          3 14 7 3 3.</_></rects>
      <tilted>0</tilted></_>
    <_>
      <rects>
        <_>
          4 0 5 9 -1.</_>
        <_>
          4 3 5 3 3.</_></rects>
      <tilted>0</tilted></_>
    <_>
      <rects>
        <_>
          4 11 13 6 -1.</_>
        <_>
          4 14 13 3 2.</_></rects>
      <tilted>0</tilted></_>
    <_>
      <rects>
        <_>
          4 12 12 6 -1.</_>
        <_>
          4 15 12 3 2.</_></rects>
      <tilted>0</tilted></_>
    <_>
      <rects>
        <_>
          5 15 8 1 -1.</_>
        <_>
          9 15 4 1 2.</_></rects>
      <tilted>0</tilted></_>
    <_>
      <rects>
        <_>
          6 0 8 6 -1.</_>
        <_>
          6 2 8 2 3.</_></rects>
      <tilted>0</tilted></_>
    <_>
      <rects>
        <_>
          6 11 4 9 -1.</_>
        <_>
          6 14 4 3 3.</_></rects>
      <tilted>0</tilted></_>
    <_>
      <rects>
        <_>
          6 18 9 2 -1.</_>
        <_>
          6 19 9 1 2.</_></rects>
      <tilted>0</tilted></_>
    <_>
      <rects>
        <_>
          7 6 12 1 -1.</_>
        <_>
          11 6 4 1 3.</_></rects>
      <tilted>0</tilted></_>
    <_>
      <rects>
        <_>
          9 16 8 2 -1.</_>
        <_>
          9 16 4 1 2.</_>
        <_>
          13 17 4 1 2.</_></rects>
      <tilted>0</tilted></_>
    <_>
      <rects>
        <_>
          10 1 2 3 -1.</_>
        <_>
          10 2 2 1 3.</_></rects>
      <tilted>0</tilted></_>
    <_>
      <rects>
        <_>
          10 4 9 1 -1.</_>
        <_>
          13 4 3 1 3.</_></rects>
      <tilted>0</tilted></_>
    <_>
      <rects>
        <_>
          11 5 6 1 -1.</_>
        <_>
          14 5 3 1 2.</_></rects>
      <tilted>0</tilted></_>
    <_>
      <rects>
        <_>
          11 15 9 2 -1.</_>
        <_>
          14 15 3 2 3.</_></rects>
      <tilted>0</tilted></_>
    <_>
      <rects>
        <_>
          12 14 6 4 -1.</_>
        <_>
          12 14 3 2 2.</_>
        <_>
          15 16 3 2 2.</_></rects>
      <tilted>0</tilted></_>
    <_>
      <rects>
        <_>
          13 3 6 4 -1.</_>
        <_>
          13 3 3 2 2.</_>
        <_>
          16 5 3 2 2.</_></rects>
      <tilted>0</tilted></_>
    <_>
      <rects>
        <_>
          13 14 1 6 -1.</_>
        <_>
          13 16 1 2 3.</_></rects>
      <tilted>0</tilted></_>
    <_>
      <rects>
        <_>
          13 14 4 1 -1.</_>
        <_>
          15 14 2 1 2.</_></rects>
      <tilted>0</tilted></_>
    <_>
      <rects>
        <_>
          14 13 4 4 -1.</_>
        <_>
          14 13 2 2 2.</_>
        <_>
          16 15 2 2 2.</_></rects>
      <tilted>0</tilted></_>
    <_>
      <rects>
        <_>
          18 6 2 9 -1.</_>
        <_>
          19 6 1 9 2.</_></rects>
      <tilted>0</tilted></_></features></cascade>
</opencv_storage>
