<?xml version="1.0"?>
<opencv_storage>
<cascade>
  <stageType>BOOST</stageType>
  <featureType>HAAR</featureType>
  <height>20</height>
  <width>20</width>
  <stageParams>
    <boostType>GAB</boostType>
    <minHitRate>9.9500000476837158e-01</minHitRate>
    <maxFalseAlarm>5.0000000000000000e-01</maxFalseAlarm>
    <weightTrimRate>9.4999999999999996e-01</weightTrimRate>
    <maxDepth>1</maxDepth>
    <maxWeakCount>100</maxWeakCount></stageParams>
  <featureParams>
    <maxCatCount>0</maxCatCount>
    <featSize>1</featSize>
    <mode>BASIC</mode></featureParams>
  <stageNum>8</stageNum>
  <stages>
    <!-- stage 0 -->
    <_>
      <maxWeakCount>3</maxWeakCount>
      <stageThreshold>-9.3298727273941040e-01</stageThreshold>
      <weakClassifiers>
        <_>
          <internalNodes>
            0 -1 1 2.7902495115995407e-02</internalNodes>
          <leafValues>
            -8.7745100259780884e-01 8.5774946212768555e-01</leafValues></_>
        <_>
          <internalNodes>
            0 -1 23 4.5597732067108154e-02</internalNodes>
          <leafValues>
            -7.1575659513473511e-01 8.6818373203277588e-01</leafValues></_>
        <_>
          <internalNodes>
            0 -1 11 1.6676537925377488e-03</internalNodes>
          <leafValues>
            -9.4659847021102905e-01 6.6022026538848877e-01</leafValues></_></weakClassifiers></_>
    <!-- stage 1 -->
    <_>
      <maxWeakCount>3</maxWeakCount>
      <stageThreshold>-6.6410905122756958e-01</stageThreshold>
      <weakClassifiers>
        <_>
          <internalNodes>
            0 -1 21 2.5480218231678009e-02</internalNodes>
          <leafValues>
            -7.6072233915328979e-01 8.6769568920135498e-01</leafValues></_>
        <_>
          <internalNodes>
            0 -1 25 3.5040117800235748e-02</internalNodes>
          <leafValues>
            -6.2905913591384888e-01 8.2951712608337402e-01</leafValues></_>
        <_>
          <internalNodes>
            0 -1 5 3.1575784087181091e-02</internalNodes>
          <leafValues>
            -7.1321982145309448e-01 7.2567242383956909e-01</leafValues></_></weakClassifiers></_>
    <!-- stage 2 -->
    <_>
      <maxWeakCount>2</maxWeakCount>
      <stageThreshold>-8.0883778631687164e-02</stageThreshold>
      <weakClassifiers>
        <_>
          <internalNodes>
            0 -1 4 4.6026505529880524e-02</internalNodes>
          <leafValues>
            -7.6960784196853638e-01 8.1104034185409546e-01</leafValues></_>
        <_>
          <internalNodes>
            0 -1 22 4.6450626105070114e-03</internalNodes>
          <leafValues>
            -8.2165545225143433e-01 6.8872404098510742e-01</leafValues></_></weakClassifiers></_>
    <!-- stage 3 -->
    <_>
      <maxWeakCount>5</maxWeakCount>
      <stageThreshold>-6.6009145975112915e-01</stageThreshold>
      <weakClassifiers>
        <_>
          <internalNodes>
            0 -1 9 -1.0193793475627899e-01</internalNodes>
          <leafValues>
            8.3314794301986694e-01 -6.6297119855880737e-01</leafValues></_>
        <_>
          <internalNodes>
            0 -1 13 2.4208571761846542e-02</internalNodes>
          <leafValues>
            -6.2887436151504517e-01 7.5296568870544434e-01</leafValues></_>
        <_>
          <internalNodes>
            0 -1 26 1.4144679531455040e-02</internalNodes>
          <leafValues>
            -6.5791863203048706e-01 7.6228213310241699e-01</leafValues></_>
        <_>
          <internalNodes>
            0 -1 3 1.4552552253007889e-02</internalNodes>
          <leafValues>
            -6.2707340717315674e-01 7.0024198293685913e-01</leafValues></_>
        <_>
          <internalNodes>
            0 -1 10 -4.6293186023831367e-03</internalNodes>
          <leafValues>
            5.3490608930587769e-01 -8.8007527589797974e-01</leafValues></_></weakClassifiers></_>
    <!-- stage 4 -->
    <_>
      <maxWeakCount>3</maxWeakCount>
      <stageThreshold>-8.9931690692901611e-01</stageThreshold>
      <weakClassifiers>
        <_>
          <internalNodes>
            0 -1 12 2.4270056746900082e-03</internalNodes>
          <leafValues>
            -9.5121949911117554e-01 6.8015050888061523e-01</leafValues></_>
        <_>
          <internalNodes>
            0 -1 27 -9.4213411211967468e-03</internalNodes>
          <leafValues>
            6.2911081314086914e-01 -8.2536733150482178e-01</leafValues></_>
        <_>
          <internalNodes>
            0 -1 8 2.2569186985492706e-02</internalNodes>
          <leafValues>
            -7.5410008430480957e-01 5.9871500730514526e-01</leafValues></_></weakClassifiers></_>
    <!-- stage 5 -->
    <_>
      <maxWeakCount>4</maxWeakCount>
      <stageThreshold>-7.0447385311126709e-01</stageThreshold>
      <weakClassifiers>
        <_>
          <internalNodes>
            0 -1 20 1.8166557420045137e-03</internalNodes>
          <leafValues>
            -8.4615385532379150e-01 6.8786126375198364e-01</leafValues></_>
        <_>
          <internalNodes>
            0 -1 0 1.5164549462497234e-02</internalNodes>
          <leafValues>
            -6.6483837366104126e-01 6.0593092441558838e-01</leafValues></_>
        <_>
          <internalNodes>
            0 -1 29 8.0970283597707748e-03</internalNodes>
          <leafValues>
            -9.4416028261184692e-01 4.2283570766448975e-01</leafValues></_>
        <_>
          <internalNodes>
            0 -1 16 -1.2533243279904127e-03</internalNodes>
          <leafValues>
            3.8368266820907593e-01 -8.9531147480010986e-01</leafValues></_></weakClassifiers></_>
    <!-- stage 6 -->
    <_>
      <maxWeakCount>5</maxWeakCount>
      <stageThreshold>-7.9521685838699341e-01</stageThreshold>
      <weakClassifiers>
        <_>
          <internalNodes>
            0 -1 15 3.5371921956539154e-02</internalNodes>
          <leafValues>
            -5.5916476249694824e-01 7.5190424919128418e-01</leafValues></_>
        <_>
          <internalNodes>
            0 -1 2 1.7557362094521523e-02</internalNodes>
          <leafValues>
            -5.5499982833862305e-01 6.7132759094238281e-01</leafValues></_>
        <_>
          <internalNodes>
            0 -1 6 -3.1944927759468555e-03</internalNodes>
          <leafValues>
            3.8946911692619324e-01 -9.1031008958816528e-01</leafValues></_>
        <_>
          <internalNodes>
            0 -1 28 -1.3532523065805435e-02</internalNodes>
          <leafValues>
            5.6091374158859253e-01 -6.1920797824859619e-01</leafValues></_>
        <_>
          <internalNodes>
            0 -1 24 5.5324304848909378e-02</internalNodes>
          <leafValues>
            -6.3143521547317505e-01 5.6002801656723022e-01</leafValues></_></weakClassifiers></_>
    <!-- stage 7 -->
    <_>
      <maxWeakCount>5</maxWeakCount>
      <stageThreshold>-2.0227071642875671e-01</stageThreshold>
      <weakClassifiers>
        <_>
          <internalNodes>
            0 -1 19 8.5796892642974854e-02</internalNodes>
          <leafValues>
            -5.5902004241943359e-01 7.7802443504333496e-01</leafValues></_>
        <_>
          <internalNodes>
            0 -1 18 1.0791895911097527e-03</internalNodes>
          <leafValues>
            -7.8140407800674438e-01 5.0398570299148560e-01</leafValues></_>
        <_>
          <internalNodes>
            0 -1 7 2.7805440127849579e-02</internalNodes>
          <leafValues>
            -6.5835720300674438e-01 5.1721197366714478e-01</leafValues></_>
        <_>
          <internalNodes>
            0 -1 14 -1.9871219410561025e-04</internalNodes>
          <leafValues>
            -9.1928881406784058e-01 3.6051478981971741e-01</leafValues></_>
        <_>
          <internalNodes>
            0 -1 17 -1.0677803074941039e-03</internalNodes>
          <leafValues>
            2.6042664051055908e-01 -8.3175992965698242e-01</leafValues></_></weakClassifiers></_></stages>
  <features>
    <_>
      <rects>
        <_>
          0 3 2 13 -1.</_>
        <_>
          1 3 1 13 2.</_></rects>
      <tilted>0</tilted></_>
    <_>
      <rects>
        <_>
          0 3 6 12 -1.</_>
        <_>
          2 3 2 12 3.</_></rects>
      <tilted>0</tilted></_>
    <_>
      <rects>
        <_>
          0 4 2 14 -1.</_>
        <_>
          1 4 1 14 2.</_></rects>
      <tilted>0</tilted></_>
    <_>
      <rects>
        <_>
          0 5 2 13 -1.</_>
        <_>
          1 5 1 13 2.</_></rects>
      <tilted>0</tilted></_>
    <_>
      <rects>
        <_>
          0 5 6 11 -1.</_>
        <_>
          2 5 2 11 3.</_></rects>
      <tilted>0</tilted></_>
    <_>
      <rects>
        <_>
          1 0 6 9 -1.</_>
        <_>
          1 3 6 3 3.</_></rects>
      <tilted>0</tilted></_>
    <_>
      <rects>
        <_>
          1 5 4 4 -1.</_>
        <_>
          1 7 4 2 2.</_></rects>
      <tilted>0</tilted></_>
    <_>
      <rects>
        <_>
          1 11 6 5 -1.</_>
        <_>
          3 11 2 5 3.</_></rects>
      <tilted>0</tilted></_>
    <_>
      <rects>
        <_>
          1 12 6 6 -1.</_>
        <_>
          3 12 2 6 3.</_></rects>
      <tilted>0</tilted></_>
    <_>
      <rects>
        <_>
          1 12 18 6 -1.</_>
        <_>
          7 12 6 6 3.</_></rects>
      <tilted>0</tilted></_>
    <_>
      <rects>
        <_>
          2 2 6 4 -1.</_>
        <_>
          2 2 3 2 2.</_>
        <_>
          5 4 3 2 2.</_></rects>
      <tilted>0</tilted></_>
    <_>
      <rects>
        <_>
          2 4 6 1 -1.</_>
        <_>
          4 4 2 1 3.</_></rects>
      <tilted>0</tilted></_>
    <_>
      <rects>
        <_>
          3 10 1 9 -1.</_>
        <_>
          3 13 1 3 3.</_></rects>
      <tilted>0</tilted></_>
    <_>
      <rects>
        <_>
          4 0 2 9 -1.</_>
        <_>
          4 3 2 3 3.</_></rects>
      <tilted>0</tilted></_>
    <_>
      <rects>
        <_>
          4 3 2 1 -1.</_>
        <_>
          5 3 1 1 2.</_></rects>
      <tilted>0</tilted></_>
    <_>
      <rects>
        <_>
          5 0 12 6 -1.</_>
        <_>
          5 2 12 2 3.</_></rects>
      <tilted>0</tilted></_>
    <_>
      <rects>
        <_>
          5 1 4 3 -1.</_>
        <_>
          7 1 2 3 2.</_></rects>
      <tilted>0</tilted></_>
    <_>
      <rects>
        <_>
          5 4 2 2 -1.</_>
        <_>
          5 5 2 1 2.</_></rects>
      <tilted>0</tilted></_>
    <_>
      <rects>
        <_>
          11 2 6 2 -1.</_>
        <_>
          13 2 2 2 3.</_></rects>
      <tilted>0</tilted></_>
    <_>
      <rects>
        <_>
          11 4 8 12 -1.</_>
        <_>
          15 4 4 12 2.</_></rects>
      <tilted>0</tilted></_>
    <_>
      <rects>
        <_>
          13 4 6 1 -1.</_>
        <_>
          15 4 2 1 3.</_></rects>
      <tilted>0</tilted></_>
    <_>
      <rects>
        <_>
          14 0 4 9 -1.</_>
        <_>
          14 3 4 3 3.</_></rects>
      <tilted>0</tilted></_>
    <_>
      <rects>
        <_>
          14 3 4 4 -1.</_>
        <_>
          14 3 2 2 2.</_>
        <_>
          16 5 2 2 2.</_></rects>
      <tilted>0</tilted></_>
    <_>
      <rects>
        <_>
          14 4 6 13 -1.</_>
        <_>
          16 4 2 13 3.</_></rects>
      <tilted>0</tilted></_>
    <_>
      <rects>
        <_>
          14 5 6 12 -1.</_>
        <_>
          16 5 2 12 3.</_></rects>
      <tilted>0</tilted></_>
    <_>
      <rects>
        <_>
          14 6 6 11 -1.</_>
        <_>
          16 6 2 11 3.</_></rects>
      <tilted>0</tilted></_>
    <_>
      <rects>
        <_>
          14 13 6 2 -1.</_>
        <_>
          16 13 2 2 3.</_></rects>
      <tilted>0</tilted></_>
    <_>
      <rects>
        <_>
          15 4 2 6 -1.</_>
        <_>
          15 7 2 3 2.</_></rects>
      <tilted>0</tilted></_>
    <_>
      <rects>
        <_>
          15 5 5 4 -1.</_>
        <_>
          15 7 5 2 2.</_></rects>
      <tilted>0</tilted></_>
    <_>
      <rects>
        <_>
          16 10 3 9 -1.</_>
        <_>
          16 13 3 3 3.</_></rects>
      <tilted>0</tilted></_></features></cascade>
</opencv_storage>
