<?xml version="1.0"?>
<opencv_storage>
<stage7>
  <maxWeakCount>5</maxWeakCount>
  <stageThreshold>-2.0227071642875671e-01</stageThreshold>
  <weakClassifiers>
    <_>
      <internalNodes>
        0 -1 63789 8.5796892642974854e-02</internalNodes>
      <leafValues>
        -5.5902004241943359e-01 7.7802443504333496e-01</leafValues></_>
    <_>
      <internalNodes>
        0 -1 63100 1.0791895911097527e-03</internalNodes>
      <leafValues>
        -7.8140407800674438e-01 5.0398570299148560e-01</leafValues></_>
    <_>
      <internalNodes>
        0 -1 13353 2.7805440127849579e-02</internalNodes>
      <leafValues>
        -6.5835720300674438e-01 5.1721197366714478e-01</leafValues></_>
    <_>
      <internalNodes>
        0 -1 29753 -1.9871219410561025e-04</internalNodes>
      <leafValues>
        -9.1928881406784058e-01 3.6051478981971741e-01</leafValues></_>
    <_>
      <internalNodes>
        0 -1 36269 -1.0677803074941039e-03</internalNodes>
      <leafValues>
        2.6042664051055908e-01 -8.3175992965698242e-01</leafValues></_></weakClassifiers></stage7>
</opencv_storage>
