<?xml version="1.0"?>
<opencv_storage>
<stage3>
  <maxWeakCount>5</maxWeakCount>
  <stageThreshold>-6.6009145975112915e-01</stageThreshold>
  <weakClassifiers>
    <_>
      <internalNodes>
        0 -1 13759 -1.0193793475627899e-01</internalNodes>
      <leafValues>
        8.3314794301986694e-01 -6.6297119855880737e-01</leafValues></_>
    <_>
      <internalNodes>
        0 -1 28131 2.4208571761846542e-02</internalNodes>
      <leafValues>
        -6.2887436151504517e-01 7.5296568870544434e-01</leafValues></_>
    <_>
      <internalNodes>
        0 -1 73264 1.4144679531455040e-02</internalNodes>
      <leafValues>
        -6.5791863203048706e-01 7.6228213310241699e-01</leafValues></_>
    <_>
      <internalNodes>
        0 -1 3363 1.4552552253007889e-02</internalNodes>
      <leafValues>
        -6.2707340717315674e-01 7.0024198293685913e-01</leafValues></_>
    <_>
      <internalNodes>
        0 -1 16210 -4.6293186023831367e-03</internalNodes>
      <leafValues>
        5.3490608930587769e-01 -8.8007527589797974e-01</leafValues></_></weakClassifiers></stage3>
</opencv_storage>
