<?xml version="1.0"?>
<opencv_storage>
<cascade>
  <stageType>BOOST</stageType>
  <featureType>HAAR</featureType>
  <height>20</height>
  <width>20</width>
  <stageParams>
    <boostType>GAB</boostType>
    <minHitRate>9.9500000476837158e-01</minHitRate>
    <maxFalseAlarm>5.0000000000000000e-01</maxFalseAlarm>
    <weightTrimRate>9.4999999999999996e-01</weightTrimRate>
    <maxDepth>1</maxDepth>
    <maxWeakCount>100</maxWeakCount></stageParams>
  <featureParams>
    <maxCatCount>0</maxCatCount>
    <featSize>1</featSize>
    <mode>BASIC</mode></featureParams>
  <stageNum>10</stageNum>
  <stages>
    <!-- stage 0 -->
    <_>
      <maxWeakCount>3</maxWeakCount>
      <stageThreshold>-8.8663828372955322e-01</stageThreshold>
      <weakClassifiers>
        <_>
          <internalNodes>
            0 -1 12 9.5706999301910400e-02</internalNodes>
          <leafValues>
            -8.3300197124481201e-01 9.2176526784896851e-01</leafValues></_>
        <_>
          <internalNodes>
            0 -1 14 7.9914122819900513e-02</internalNodes>
          <leafValues>
            -6.9216978549957275e-01 8.8059258460998535e-01</leafValues></_>
        <_>
          <internalNodes>
            0 -1 7 2.0009733736515045e-02</internalNodes>
          <leafValues>
            -7.7176779508590698e-01 6.3853353261947632e-01</leafValues></_></weakClassifiers></_>
    <!-- stage 1 -->
    <_>
      <maxWeakCount>3</maxWeakCount>
      <stageThreshold>-6.3288760185241699e-01</stageThreshold>
      <weakClassifiers>
        <_>
          <internalNodes>
            0 -1 21 -1.6256691515445709e-01</internalNodes>
          <leafValues>
            8.8877654075622559e-01 -7.4168294668197632e-01</leafValues></_>
        <_>
          <internalNodes>
            0 -1 20 1.9194107502698898e-02</internalNodes>
          <leafValues>
            -6.5622866153717041e-01 7.8335523605346680e-01</leafValues></_>
        <_>
          <internalNodes>
            0 -1 28 2.2399090230464935e-02</internalNodes>
          <leafValues>
            -6.5465748310089111e-01 7.6502406597137451e-01</leafValues></_></weakClassifiers></_>
    <!-- stage 2 -->
    <_>
      <maxWeakCount>4</maxWeakCount>
      <stageThreshold>-1.4102396965026855e+00</stageThreshold>
      <weakClassifiers>
        <_>
          <internalNodes>
            0 -1 40 1.1183235794305801e-02</internalNodes>
          <leafValues>
            -6.5327697992324829e-01 7.8773123025894165e-01</leafValues></_>
        <_>
          <internalNodes>
            0 -1 22 6.4735300838947296e-02</internalNodes>
          <leafValues>
            -6.4701271057128906e-01 7.2275537252426147e-01</leafValues></_>
        <_>
          <internalNodes>
            0 -1 5 5.4016457870602608e-03</internalNodes>
          <leafValues>
            -7.1048170328140259e-01 6.4187371730804443e-01</leafValues></_>
        <_>
          <internalNodes>
            0 -1 1 3.0617393553256989e-02</internalNodes>
          <leafValues>
            -7.6923644542694092e-01 5.3583711385726929e-01</leafValues></_></weakClassifiers></_>
    <!-- stage 3 -->
    <_>
      <maxWeakCount>4</maxWeakCount>
      <stageThreshold>-1.2348924875259399e+00</stageThreshold>
      <weakClassifiers>
        <_>
          <internalNodes>
            0 -1 9 8.0850459635257721e-02</internalNodes>
          <leafValues>
            -7.3113209009170532e-01 7.5278812646865845e-01</leafValues></_>
        <_>
          <internalNodes>
            0 -1 42 -7.0986188948154449e-03</internalNodes>
          <leafValues>
            7.4152576923370361e-01 -5.7725477218627930e-01</leafValues></_>
        <_>
          <internalNodes>
            0 -1 12 1.2668430805206299e-01</internalNodes>
          <leafValues>
            -7.0457112789154053e-01 5.6633472442626953e-01</leafValues></_>
        <_>
          <internalNodes>
            0 -1 0 2.4648824706673622e-02</internalNodes>
          <leafValues>
            -7.0585465431213379e-01 5.6155210733413696e-01</leafValues></_></weakClassifiers></_>
    <!-- stage 4 -->
    <_>
      <maxWeakCount>5</maxWeakCount>
      <stageThreshold>-1.0238500833511353e+00</stageThreshold>
      <weakClassifiers>
        <_>
          <internalNodes>
            0 -1 35 2.9093228280544281e-02</internalNodes>
          <leafValues>
            -5.5555558204650879e-01 7.5936883687973022e-01</leafValues></_>
        <_>
          <internalNodes>
            0 -1 10 7.8606143593788147e-02</internalNodes>
          <leafValues>
            -8.6884784698486328e-01 4.9328222870826721e-01</leafValues></_>
        <_>
          <internalNodes>
            0 -1 3 3.1207289546728134e-02</internalNodes>
          <leafValues>
            -7.1185070276260376e-01 5.4412037134170532e-01</leafValues></_>
        <_>
          <internalNodes>
            0 -1 32 -1.9995585083961487e-02</internalNodes>
          <leafValues>
            5.6110143661499023e-01 -6.1340910196304321e-01</leafValues></_>
        <_>
          <internalNodes>
            0 -1 30 1.6949366778135300e-02</internalNodes>
          <leafValues>
            -5.5626589059829712e-01 5.5130255222320557e-01</leafValues></_></weakClassifiers></_>
    <!-- stage 5 -->
    <_>
      <maxWeakCount>5</maxWeakCount>
      <stageThreshold>-6.7744904756546021e-01</stageThreshold>
      <weakClassifiers>
        <_>
          <internalNodes>
            0 -1 8 2.8365043923258781e-02</internalNodes>
          <leafValues>
            -6.3934427499771118e-01 7.2041004896163940e-01</leafValues></_>
        <_>
          <internalNodes>
            0 -1 31 1.6450781375169754e-02</internalNodes>
          <leafValues>
            -5.4854869842529297e-01 6.9444292783737183e-01</leafValues></_>
        <_>
          <internalNodes>
            0 -1 24 -2.2565063834190369e-01</internalNodes>
          <leafValues>
            5.9948277473449707e-01 -5.4521846771240234e-01</leafValues></_>
        <_>
          <internalNodes>
            0 -1 29 2.0817869808524847e-03</internalNodes>
          <leafValues>
            -6.8112683296203613e-01 5.1444458961486816e-01</leafValues></_>
        <_>
          <internalNodes>
            0 -1 4 9.2800371348857880e-03</internalNodes>
          <leafValues>
            -5.5983036756515503e-01 5.4121774435043335e-01</leafValues></_></weakClassifiers></_>
    <!-- stage 6 -->
    <_>
      <maxWeakCount>6</maxWeakCount>
      <stageThreshold>-6.6756927967071533e-01</stageThreshold>
      <weakClassifiers>
        <_>
          <internalNodes>
            0 -1 25 -7.6472178101539612e-02</internalNodes>
          <leafValues>
            6.6757494211196899e-01 -5.8897244930267334e-01</leafValues></_>
        <_>
          <internalNodes>
            0 -1 39 -1.2534229084849358e-02</internalNodes>
          <leafValues>
            6.4196777343750000e-01 -4.9659335613250732e-01</leafValues></_>
        <_>
          <internalNodes>
            0 -1 34 9.8426709882915020e-04</internalNodes>
          <leafValues>
            -7.0991665124893188e-01 4.3864613771438599e-01</leafValues></_>
        <_>
          <internalNodes>
            0 -1 13 8.3703771233558655e-02</internalNodes>
          <leafValues>
            -8.3630341291427612e-01 3.4519758820533752e-01</leafValues></_>
        <_>
          <internalNodes>
            0 -1 2 8.6441040039062500e-03</internalNodes>
          <leafValues>
            -6.4295774698257446e-01 4.6266549825668335e-01</leafValues></_>
        <_>
          <internalNodes>
            0 -1 26 -2.4705141549929976e-04</internalNodes>
          <leafValues>
            -8.2851272821426392e-01 3.5821512341499329e-01</leafValues></_></weakClassifiers></_>
    <!-- stage 7 -->
    <_>
      <maxWeakCount>7</maxWeakCount>
      <stageThreshold>-6.5058010816574097e-01</stageThreshold>
      <weakClassifiers>
        <_>
          <internalNodes>
            0 -1 43 -8.0496873706579208e-03</internalNodes>
          <leafValues>
            7.9856115579605103e-01 -2.4924924969673157e-01</leafValues></_>
        <_>
          <internalNodes>
            0 -1 11 6.7437842488288879e-02</internalNodes>
          <leafValues>
            -6.1720675230026245e-01 5.5500578880310059e-01</leafValues></_>
        <_>
          <internalNodes>
            0 -1 17 9.9360264837741852e-02</internalNodes>
          <leafValues>
            -5.3334897756576538e-01 5.2071565389633179e-01</leafValues></_>
        <_>
          <internalNodes>
            0 -1 36 8.0489390529692173e-04</internalNodes>
          <leafValues>
            -7.2539812326431274e-01 3.9089158177375793e-01</leafValues></_>
        <_>
          <internalNodes>
            0 -1 27 2.3288477212190628e-02</internalNodes>
          <leafValues>
            -5.1875275373458862e-01 5.7292723655700684e-01</leafValues></_>
        <_>
          <internalNodes>
            0 -1 37 1.2055046856403351e-02</internalNodes>
          <leafValues>
            -6.0852068662643433e-01 4.4521558284759521e-01</leafValues></_>
        <_>
          <internalNodes>
            0 -1 6 1.7532017081975937e-02</internalNodes>
          <leafValues>
            -6.1379337310791016e-01 4.6240606904029846e-01</leafValues></_></weakClassifiers></_>
    <!-- stage 8 -->
    <_>
      <maxWeakCount>4</maxWeakCount>
      <stageThreshold>-6.3249337673187256e-01</stageThreshold>
      <weakClassifiers>
        <_>
          <internalNodes>
            0 -1 15 -2.8919929172843695e-04</internalNodes>
          <leafValues>
            -9.1596639156341553e-01 5.6893819570541382e-01</leafValues></_>
        <_>
          <internalNodes>
            0 -1 19 -1.2006845325231552e-02</internalNodes>
          <leafValues>
            5.1670622825622559e-01 -5.7135307788848877e-01</leafValues></_>
        <_>
          <internalNodes>
            0 -1 16 -2.7157366275787354e-04</internalNodes>
          <leafValues>
            -8.2084369659423828e-01 3.4696501493453979e-01</leafValues></_>
        <_>
          <internalNodes>
            0 -1 41 3.6552656441926956e-02</internalNodes>
          <leafValues>
            -5.8143001794815063e-01 5.0786101818084717e-01</leafValues></_></weakClassifiers></_>
    <!-- stage 9 -->
    <_>
      <maxWeakCount>4</maxWeakCount>
      <stageThreshold>-6.2320381402969360e-01</stageThreshold>
      <weakClassifiers>
        <_>
          <internalNodes>
            0 -1 23 -9.6531482995487750e-05</internalNodes>
          <leafValues>
            -9.1964286565780640e-01 5.5329155921936035e-01</leafValues></_>
        <_>
          <internalNodes>
            0 -1 18 -1.6072098514996469e-04</internalNodes>
          <leafValues>
            -8.8152956962585449e-01 3.5806941986083984e-01</leafValues></_>
        <_>
          <internalNodes>
            0 -1 38 9.6677001565694809e-03</internalNodes>
          <leafValues>
            -7.1436351537704468e-01 3.8747611641883850e-01</leafValues></_>
        <_>
          <internalNodes>
            0 -1 33 -1.4571530744433403e-02</internalNodes>
          <leafValues>
            4.1939774155616760e-01 -5.6526547670364380e-01</leafValues></_></weakClassifiers></_></stages>
  <features>
    <_>
      <rects>
        <_>
          0 2 4 15 -1.</_>
        <_>
          2 2 2 15 2.</_></rects>
      <tilted>0</tilted></_>
    <_>
      <rects>
        <_>
          0 3 15 5 -1.</_>
        <_>
          5 3 5 5 3.</_></rects>
      <tilted>0</tilted></_>
    <_>
      <rects>
        <_>
          0 4 2 12 -1.</_>
        <_>
          1 4 1 12 2.</_></rects>
      <tilted>0</tilted></_>
    <_>
      <rects>
        <_>
          0 4 15 3 -1.</_>
        <_>
          5 4 5 3 3.</_></rects>
      <tilted>0</tilted></_>
    <_>
      <rects>
        <_>
          0 5 2 11 -1.</_>
        <_>
          1 5 1 11 2.</_></rects>
      <tilted>0</tilted></_>
    <_>
      <rects>
        <_>
          0 5 2 12 -1.</_>
        <_>
          1 5 1 12 2.</_></rects>
      <tilted>0</tilted></_>
    <_>
      <rects>
        <_>
          0 8 4 10 -1.</_>
        <_>
          2 8 2 10 2.</_></rects>
      <tilted>0</tilted></_>
    <_>
      <rects>
        <_>
          0 14 15 3 -1.</_>
        <_>
          5 14 5 3 3.</_></rects>
      <tilted>0</tilted></_>
    <_>
      <rects>
        <_>
          2 13 12 5 -1.</_>
        <_>
          6 13 4 5 3.</_></rects>
      <tilted>0</tilted></_>
    <_>
      <rects>
        <_>
          3 1 16 9 -1.</_>
        <_>
          3 4 16 3 3.</_></rects>
      <tilted>0</tilted></_>
    <_>
      <rects>
        <_>
          3 11 13 9 -1.</_>
        <_>
          3 14 13 3 3.</_></rects>
      <tilted>0</tilted></_>
    <_>
      <rects>
        <_>
          4 1 7 9 -1.</_>
        <_>
          4 4 7 3 3.</_></rects>
      <tilted>0</tilted></_>
    <_>
      <rects>
        <_>
          4 11 13 9 -1.</_>
        <_>
          4 14 13 3 3.</_></rects>
      <tilted>0</tilted></_>
    <_>
      <rects>
        <_>
          4 11 16 9 -1.</_>
        <_>
          4 14 16 3 3.</_></rects>
      <tilted>0</tilted></_>
    <_>
      <rects>
        <_>
          5 0 9 9 -1.</_>
        <_>
          5 3 9 3 3.</_></rects>
      <tilted>0</tilted></_>
    <_>
      <rects>
        <_>
          5 3 4 3 -1.</_>
        <_>
          7 3 2 3 2.</_></rects>
      <tilted>0</tilted></_>
    <_>
      <rects>
        <_>
          5 4 3 2 -1.</_>
        <_>
          6 4 1 2 3.</_></rects>
      <tilted>0</tilted></_>
    <_>
      <rects>
        <_>
          5 11 7 9 -1.</_>
        <_>
          5 14 7 3 3.</_></rects>
      <tilted>0</tilted></_>
    <_>
      <rects>
        <_>
          5 15 3 1 -1.</_>
        <_>
          6 15 1 1 3.</_></rects>
      <tilted>0</tilted></_>
    <_>
      <rects>
        <_>
          5 18 11 2 -1.</_>
        <_>
          5 19 11 1 2.</_></rects>
      <tilted>0</tilted></_>
    <_>
      <rects>
        <_>
          6 0 9 4 -1.</_>
        <_>
          6 2 9 2 2.</_></rects>
      <tilted>0</tilted></_>
    <_>
      <rects>
        <_>
          6 3 9 15 -1.</_>
        <_>
          6 8 9 5 3.</_></rects>
      <tilted>0</tilted></_>
    <_>
      <rects>
        <_>
          6 11 5 9 -1.</_>
        <_>
          6 14 5 3 3.</_></rects>
      <tilted>0</tilted></_>
    <_>
      <rects>
        <_>
          6 15 2 1 -1.</_>
        <_>
          7 15 1 1 2.</_></rects>
      <tilted>0</tilted></_>
    <_>
      <rects>
        <_>
          7 3 8 15 -1.</_>
        <_>
          7 8 8 5 3.</_></rects>
      <tilted>0</tilted></_>
    <_>
      <rects>
        <_>
          7 3 9 8 -1.</_>
        <_>
          7 7 9 4 2.</_></rects>
      <tilted>0</tilted></_>
    <_>
      <rects>
        <_>
          7 15 4 2 -1.</_>
        <_>
          7 16 4 1 2.</_></rects>
      <tilted>0</tilted></_>
    <_>
      <rects>
        <_>
          8 0 5 6 -1.</_>
        <_>
          8 2 5 2 3.</_></rects>
      <tilted>0</tilted></_>
    <_>
      <rects>
        <_>
          9 14 5 6 -1.</_>
        <_>
          9 16 5 2 3.</_></rects>
      <tilted>0</tilted></_>
    <_>
      <rects>
        <_>
          10 16 3 3 -1.</_>
        <_>
          10 17 3 1 3.</_></rects>
      <tilted>0</tilted></_>
    <_>
      <rects>
        <_>
          11 1 3 6 -1.</_>
        <_>
          11 3 3 2 3.</_></rects>
      <tilted>0</tilted></_>
    <_>
      <rects>
        <_>
          11 3 8 4 -1.</_>
        <_>
          11 3 4 2 2.</_>
        <_>
          15 5 4 2 2.</_></rects>
      <tilted>0</tilted></_>
    <_>
      <rects>
        <_>
          11 13 8 6 -1.</_>
        <_>
          11 13 4 3 2.</_>
        <_>
          15 16 4 3 2.</_></rects>
      <tilted>0</tilted></_>
    <_>
      <rects>
        <_>
          11 14 8 4 -1.</_>
        <_>
          11 14 4 2 2.</_>
        <_>
          15 16 4 2 2.</_></rects>
      <tilted>0</tilted></_>
    <_>
      <rects>
        <_>
          12 5 6 1 -1.</_>
        <_>
          14 5 2 1 3.</_></rects>
      <tilted>0</tilted></_>
    <_>
      <rects>
        <_>
          12 6 6 9 -1.</_>
        <_>
          15 6 3 9 2.</_></rects>
      <tilted>0</tilted></_>
    <_>
      <rects>
        <_>
          12 15 6 1 -1.</_>
        <_>
          14 15 2 1 3.</_></rects>
      <tilted>0</tilted></_>
    <_>
      <rects>
        <_>
          13 4 4 11 -1.</_>
        <_>
          15 4 2 11 2.</_></rects>
      <tilted>0</tilted></_>
    <_>
      <rects>
        <_>
          13 4 6 4 -1.</_>
        <_>
          13 4 3 2 2.</_>
        <_>
          16 6 3 2 2.</_></rects>
      <tilted>0</tilted></_>
    <_>
      <rects>
        <_>
          13 13 6 4 -1.</_>
        <_>
          13 13 3 2 2.</_>
        <_>
          16 15 3 2 2.</_></rects>
      <tilted>0</tilted></_>
    <_>
      <rects>
        <_>
          14 6 4 8 -1.</_>
        <_>
          16 6 2 8 2.</_></rects>
      <tilted>0</tilted></_>
    <_>
      <rects>
        <_>
          14 6 6 9 -1.</_>
        <_>
          16 6 2 9 3.</_></rects>
      <tilted>0</tilted></_>
    <_>
      <rects>
        <_>
          18 6 2 9 -1.</_>
        <_>
          19 6 1 9 2.</_></rects>
      <tilted>0</tilted></_>
    <_>
      <rects>
        <_>
          18 7 2 7 -1.</_>
        <_>
          19 7 1 7 2.</_></rects>
      <tilted>0</tilted></_></features></cascade>
</opencv_storage>
