<?xml version="1.0"?>
<opencv_storage>
<stage4>
  <maxWeakCount>5</maxWeakCount>
  <stageThreshold>-1.0238500833511353e+00</stageThreshold>
  <weakClassifiers>
    <_>
      <internalNodes>
        0 -1 67366 2.9093228280544281e-02</internalNodes>
      <leafValues>
        -5.5555558204650879e-01 7.5936883687973022e-01</leafValues></_>
    <_>
      <internalNodes>
        0 -1 27001 7.8606143593788147e-02</internalNodes>
      <leafValues>
        -8.6884784698486328e-01 4.9328222870826721e-01</leafValues></_>
    <_>
      <internalNodes>
        0 -1 2948 3.1207289546728134e-02</internalNodes>
      <leafValues>
        -7.1185070276260376e-01 5.4412037134170532e-01</leafValues></_>
    <_>
      <internalNodes>
        0 -1 65403 -1.9995585083961487e-02</internalNodes>
      <leafValues>
        5.6110143661499023e-01 -6.1340910196304321e-01</leafValues></_>
    <_>
      <internalNodes>
        0 -1 62861 1.6949366778135300e-02</internalNodes>
      <leafValues>
        -5.5626589059829712e-01 5.5130255222320557e-01</leafValues></_></weakClassifiers></stage4>
</opencv_storage>
