<?xml version="1.0"?>
<opencv_storage>
<cascade>
  <stageType>BOOST</stageType>
  <featureType>HAAR</featureType>
  <height>20</height>
  <width>20</width>
  <stageParams>
    <boostType>GAB</boostType>
    <minHitRate>9.9500000476837158e-01</minHitRate>
    <maxFalseAlarm>5.0000000000000000e-01</maxFalseAlarm>
    <weightTrimRate>9.4999999999999996e-01</weightTrimRate>
    <maxDepth>1</maxDepth>
    <maxWeakCount>100</maxWeakCount></stageParams>
  <featureParams>
    <maxCatCount>0</maxCatCount>
    <featSize>1</featSize>
    <mode>BASIC</mode></featureParams>
  <stageNum>7</stageNum>
  <stages>
    <!-- stage 0 -->
    <_>
      <maxWeakCount>3</maxWeakCount>
      <stageThreshold>-9.1753524541854858e-01</stageThreshold>
      <weakClassifiers>
        <_>
          <internalNodes>
            0 -1 1 1.3824410736560822e-01</internalNodes>
          <leafValues>
            -9.1402715444564819e-01 9.4052863121032715e-01</leafValues></_>
        <_>
          <internalNodes>
            0 -1 10 1.0894685983657837e-01</internalNodes>
          <leafValues>
            -8.0472010374069214e-01 9.2032277584075928e-01</leafValues></_>
        <_>
          <internalNodes>
            0 -1 14 -5.1335459575057030e-03</internalNodes>
          <leafValues>
            8.0121201276779175e-01 -7.8169149160385132e-01</leafValues></_></weakClassifiers></_>
    <!-- stage 1 -->
    <_>
      <maxWeakCount>3</maxWeakCount>
      <stageThreshold>-9.6969038248062134e-01</stageThreshold>
      <weakClassifiers>
        <_>
          <internalNodes>
            0 -1 6 -6.5746970474720001e-02</internalNodes>
          <leafValues>
            8.6046510934829712e-01 -9.0099012851715088e-01</leafValues></_>
        <_>
          <internalNodes>
            0 -1 3 1.3798287138342857e-02</internalNodes>
          <leafValues>
            -7.8559744358062744e-01 8.0911642313003540e-01</leafValues></_>
        <_>
          <internalNodes>
            0 -1 13 1.7890119925141335e-02</internalNodes>
          <leafValues>
            -8.7313097715377808e-01 7.1689718961715698e-01</leafValues></_></weakClassifiers></_>
    <!-- stage 2 -->
    <_>
      <maxWeakCount>2</maxWeakCount>
      <stageThreshold>-1.6577333211898804e-02</stageThreshold>
      <weakClassifiers>
        <_>
          <internalNodes>
            0 -1 2 3.1906709074974060e-02</internalNodes>
          <leafValues>
            -8.4500002861022949e-01 8.2947367429733276e-01</leafValues></_>
        <_>
          <internalNodes>
            0 -1 5 -3.6328417062759399e-01</internalNodes>
          <leafValues>
            8.2842266559600830e-01 -7.4962919950485229e-01</leafValues></_></weakClassifiers></_>
    <!-- stage 3 -->
    <_>
      <maxWeakCount>3</maxWeakCount>
      <stageThreshold>-1.0893149375915527e+00</stageThreshold>
      <weakClassifiers>
        <_>
          <internalNodes>
            0 -1 8 7.3379399254918098e-03</internalNodes>
          <leafValues>
            -8.8524591922760010e-01 7.8658539056777954e-01</leafValues></_>
        <_>
          <internalNodes>
            0 -1 12 -2.0177287980914116e-02</internalNodes>
          <leafValues>
            6.9947010278701782e-01 -7.6693642139434814e-01</leafValues></_>
        <_>
          <internalNodes>
            0 -1 16 1.8854834139347076e-02</internalNodes>
          <leafValues>
            -8.5858047008514404e-01 5.6286740303039551e-01</leafValues></_></weakClassifiers></_>
    <!-- stage 4 -->
    <_>
      <maxWeakCount>2</maxWeakCount>
      <stageThreshold>-1.2542511522769928e-01</stageThreshold>
      <weakClassifiers>
        <_>
          <internalNodes>
            0 -1 7 1.2580342590808868e-02</internalNodes>
          <leafValues>
            -8.0577427148818970e-01 7.8121775388717651e-01</leafValues></_>
        <_>
          <internalNodes>
            0 -1 17 -1.3471292331814766e-02</internalNodes>
          <leafValues>
            6.8034917116165161e-01 -7.4487370252609253e-01</leafValues></_></weakClassifiers></_>
    <!-- stage 5 -->
    <_>
      <maxWeakCount>4</maxWeakCount>
      <stageThreshold>-1.3201288878917694e-01</stageThreshold>
      <weakClassifiers>
        <_>
          <internalNodes>
            0 -1 0 1.8570896983146667e-01</internalNodes>
          <leafValues>
            -7.5000000000000000e-01 8.2937365770339966e-01</leafValues></_>
        <_>
          <internalNodes>
            0 -1 11 9.5293745398521423e-02</internalNodes>
          <leafValues>
            -7.2295278310775757e-01 7.4558782577514648e-01</leafValues></_>
        <_>
          <internalNodes>
            0 -1 9 -9.6251554787158966e-03</internalNodes>
          <leafValues>
            7.8245419263839722e-01 -6.5863275527954102e-01</leafValues></_>
        <_>
          <internalNodes>
            0 -1 15 1.6864735633134842e-02</internalNodes>
          <leafValues>
            -8.4539210796356201e-01 5.5848568677902222e-01</leafValues></_></weakClassifiers></_>
    <!-- stage 6 -->
    <_>
      <maxWeakCount>2</maxWeakCount>
      <stageThreshold>-4.9122013151645660e-02</stageThreshold>
      <weakClassifiers>
        <_>
          <internalNodes>
            0 -1 4 2.3372497409582138e-02</internalNodes>
          <leafValues>
            -7.5392669439315796e-01 7.6239669322967529e-01</leafValues></_>
        <_>
          <internalNodes>
            0 -1 18 -1.0931832715868950e-02</internalNodes>
          <leafValues>
            7.0480465888977051e-01 -7.1394383907318115e-01</leafValues></_></weakClassifiers></_></stages>
  <features>
    <_>
      <rects>
        <_>
          0 1 9 17 -1.</_>
        <_>
          3 1 3 17 3.</_></rects>
      <tilted>0</tilted></_>
    <_>
      <rects>
        <_>
          0 2 9 17 -1.</_>
        <_>
          3 2 3 17 3.</_></rects>
      <tilted>0</tilted></_>
    <_>
      <rects>
        <_>
          0 7 6 7 -1.</_>
        <_>
          2 7 2 7 3.</_></rects>
      <tilted>0</tilted></_>
    <_>
      <rects>
        <_>
          2 10 4 8 -1.</_>
        <_>
          2 10 2 4 2.</_>
        <_>
          4 14 2 4 2.</_></rects>
      <tilted>0</tilted></_>
    <_>
      <rects>
        <_>
          2 12 6 8 -1.</_>
        <_>
          2 12 3 4 2.</_>
        <_>
          5 16 3 4 2.</_></rects>
      <tilted>0</tilted></_>
    <_>
      <rects>
        <_>
          3 1 15 17 -1.</_>
        <_>
          8 1 5 17 3.</_></rects>
      <tilted>0</tilted></_>
    <_>
      <rects>
        <_>
          3 4 6 13 -1.</_>
        <_>
          6 4 3 13 2.</_></rects>
      <tilted>0</tilted></_>
    <_>
      <rects>
        <_>
          4 11 2 9 -1.</_>
        <_>
          4 14 2 3 3.</_></rects>
      <tilted>0</tilted></_>
    <_>
      <rects>
        <_>
          5 1 1 12 -1.</_>
        <_>
          5 5 1 4 3.</_></rects>
      <tilted>0</tilted></_>
    <_>
      <rects>
        <_>
          5 18 10 2 -1.</_>
        <_>
          5 19 10 1 2.</_></rects>
      <tilted>0</tilted></_>
    <_>
      <rects>
        <_>
          10 4 8 13 -1.</_>
        <_>
          14 4 4 13 2.</_></rects>
      <tilted>0</tilted></_>
    <_>
      <rects>
        <_>
          11 5 6 14 -1.</_>
        <_>
          14 5 3 14 2.</_></rects>
      <tilted>0</tilted></_>
    <_>
      <rects>
        <_>
          13 13 6 6 -1.</_>
        <_>
          13 13 3 3 2.</_>
        <_>
          16 16 3 3 2.</_></rects>
      <tilted>0</tilted></_>
    <_>
      <rects>
        <_>
          14 12 6 5 -1.</_>
        <_>
          16 12 2 5 3.</_></rects>
      <tilted>0</tilted></_>
    <_>
      <rects>
        <_>
          14 13 4 4 -1.</_>
        <_>
          14 13 2 2 2.</_>
        <_>
          16 15 2 2 2.</_></rects>
      <tilted>0</tilted></_>
    <_>
      <rects>
        <_>
          15 0 2 12 -1.</_>
        <_>
          15 4 2 4 3.</_></rects>
      <tilted>0</tilted></_>
    <_>
      <rects>
        <_>
          15 1 3 12 -1.</_>
        <_>
          15 5 3 4 3.</_></rects>
      <tilted>0</tilted></_>
    <_>
      <rects>
        <_>
          15 10 4 8 -1.</_>
        <_>
          15 10 2 4 2.</_>
        <_>
          17 14 2 4 2.</_></rects>
      <tilted>0</tilted></_>
    <_>
      <rects>
        <_>
          18 3 2 17 -1.</_>
        <_>
          19 3 1 17 2.</_></rects>
      <tilted>0</tilted></_></features></cascade>
</opencv_storage>
